
\data\
ngram 1=43
ngram 2=339

\1-grams:
-1.690924	1	-2.098606
-1.690924	2	-2.098606
-1.690924	3	-2.098606
-1.690924	4	-2.098606
-1.690924	5	-2.098606
-1.690924	6	-2.098606
-1.690924	7	-2.098606
-1.690924	8	-2.098606
-1.690924	9	-2.098606
-0.7369622	</s>
-99	<s>	-3.050307
-1.774231	と	-1.941758
-1.644251	一	-1.954508
-1.644251	七	-1.954508
-1.644251	三	-1.954508
-1.463177	上	-2.766855
-1.68155	不	-3.129213
-1.644251	九	-1.954508
-1.644251	二	-1.954508
-1.802693	五	-1.797673
-1.774231	全	-1.941758
-1.644251	八	-1.954508
-1.802693	六	-1.797673
-1.36429	右	-2.508559
-1.802693	四	-1.797673
-1.774231	圭	-1.941758
-1.634158	寄	-2.596054
-1.36429	左	-2.508559
-1.463177	引	-2.766855
-1.380675	成	-3.360642
-1.774231	打	-2.967086
-1.774231	杏	-1.941758
-2.016982	桂	-1.851038
-2.396257	歩	-1.703451
-2.617039	玉	-1.816867
-2.05471	直	-2.176405
-1.817656	角	-1.876508
-1.774231	金	-1.941758
-1.53432	銀	-2.100878
-1.744293	飛	-1.880944
-2.396257	香	-1.703451
-2.074878	馬	-1.707207
-2.074878	龍	-1.707207

\2-grams:
-0.9103733	1 一
-0.9103733	1 七
-0.9103733	1 三
-0.9103733	1 九
-0.9103733	1 二
-1.06894	1 五
-0.9103733	1 八
-1.06894	1 六
-1.06894	1 四
-0.9103733	2 一
-0.9103733	2 七
-0.9103733	2 三
-0.9103733	2 九
-0.9103733	2 二
-1.06894	2 五
-0.9103733	2 八
-1.06894	2 六
-1.06894	2 四
-0.9103733	3 一
-0.9103733	3 七
-0.9103733	3 三
-0.9103733	3 九
-0.9103733	3 二
-1.06894	3 五
-0.9103733	3 八
-1.06894	3 六
-1.06894	3 四
-0.9103733	4 一
-0.9103733	4 七
-0.9103733	4 三
-0.9103733	4 九
-0.9103733	4 二
-1.06894	4 五
-0.9103733	4 八
-1.06894	4 六
-1.06894	4 四
-0.9103733	5 一
-0.9103733	5 七
-0.9103733	5 三
-0.9103733	5 九
-0.9103733	5 二
-1.06894	5 五
-0.9103733	5 八
-1.06894	5 六
-1.06894	5 四
-0.9103733	6 一
-0.9103733	6 七
-0.9103733	6 三
-0.9103733	6 九
-0.9103733	6 二
-1.06894	6 五
-0.9103733	6 八
-1.06894	6 六
-1.06894	6 四
-0.9103733	7 一
-0.9103733	7 七
-0.9103733	7 三
-0.9103733	7 九
-0.9103733	7 二
-1.06894	7 五
-0.9103733	7 八
-1.06894	7 六
-1.06894	7 四
-0.9103733	8 一
-0.9103733	8 七
-0.9103733	8 三
-0.9103733	8 九
-0.9103733	8 二
-1.06894	8 五
-0.9103733	8 八
-1.06894	8 六
-1.06894	8 四
-0.9103733	9 一
-0.9103733	9 七
-0.9103733	9 三
-0.9103733	9 九
-0.9103733	9 二
-1.06894	9 五
-0.9103733	9 八
-1.06894	9 六
-1.06894	9 四
-0.9545585	<s> 1
-0.9545585	<s> 2
-0.9545585	<s> 3
-0.9545585	<s> 4
-0.9545585	<s> 5
-0.9545585	<s> 6
-0.9545585	<s> 7
-0.9545585	<s> 8
-0.9545585	<s> 9
-1.149181	と </s>
-1.149181	と 上
-0.5471211	と 右
-1.149181	と 寄
-0.5471211	と 左
-1.149181	と 引
-1.149181	と 打
-1.149181	と 直
-1.088277	一 と
-1.088277	一 全
-1.088277	一 圭
-1.088277	一 杏
-1.234405	一 桂
-1.632345	一 歩
-1.933375	一 玉
-1.030285	一 角
-1.088277	一 金
-0.7430431	一 銀
-0.9556512	一 飛
-1.632345	一 香
-1.389307	一 馬
-1.389307	一 龍
-1.088277	七 と
-1.088277	七 全
-1.088277	七 圭
-1.088277	七 杏
-1.234405	七 桂
-1.632345	七 歩
-1.933375	七 玉
-1.030285	七 角
-1.088277	七 金
-0.7430431	七 銀
-0.9556512	七 飛
-1.632345	七 香
-1.389307	七 馬
-1.389307	七 龍
-1.088277	三 と
-1.088277	三 全
-1.088277	三 圭
-1.088277	三 杏
-1.234405	三 桂
-1.632345	三 歩
-1.933375	三 玉
-1.030285	三 角
-1.088277	三 金
-0.7430431	三 銀
-0.9556512	三 飛
-1.632345	三 香
-1.389307	三 馬
-1.389307	三 龍
-0.1155153	上 </s>
-0.9350592	上 不
-0.9350592	上 成
-0.0003092164	不 成
-1.088277	九 と
-1.088277	九 全
-1.088277	九 圭
-1.088277	九 杏
-1.234405	九 桂
-1.632345	九 歩
-1.933375	九 玉
-1.030285	九 角
-1.088277	九 金
-0.7430431	九 銀
-0.9556512	九 飛
-1.632345	九 香
-1.389307	九 馬
-1.389307	九 龍
-1.088277	二 と
-1.088277	二 全
-1.088277	二 圭
-1.088277	二 杏
-1.234405	二 桂
-1.632345	二 歩
-1.933375	二 玉
-1.030285	二 角
-1.088277	二 金
-0.7430431	二 銀
-0.9556512	二 飛
-1.632345	二 香
-1.389307	二 馬
-1.389307	二 龍
-0.9314417	五 と
-0.9314417	五 全
-0.9314417	五 圭
-0.9314417	五 杏
-1.47551	五 桂
-1.77654	五 歩
-1.77654	五 玉
-1.299419	五 角
-0.9314417	五 金
-1.036177	五 銀
-1.232472	五 飛
-1.77654	五 香
-1.232472	五 馬
-1.232472	五 龍
-1.149181	全 </s>
-1.149181	全 上
-0.5471211	全 右
-1.149181	全 寄
-0.5471211	全 左
-1.149181	全 引
-1.149181	全 打
-1.149181	全 直
-1.088277	八 と
-1.088277	八 全
-1.088277	八 圭
-1.088277	八 杏
-1.234405	八 桂
-1.632345	八 歩
-1.933375	八 玉
-1.030285	八 角
-1.088277	八 金
-0.7430431	八 銀
-0.9556512	八 飛
-1.632345	八 香
-1.389307	八 馬
-1.389307	八 龍
-0.9314417	六 と
-0.9314417	六 全
-0.9314417	六 圭
-0.9314417	六 杏
-1.47551	六 桂
-1.77654	六 歩
-1.77654	六 玉
-1.299419	六 角
-0.9314417	六 金
-1.036177	六 銀
-1.232472	六 飛
-1.77654	六 香
-1.232472	六 馬
-1.232472	六 龍
-0.5158025	右 </s>
-0.6918938	右 上
-1.131226	右 不
-0.8582252	右 寄
-0.6918938	右 引
-1.131226	右 成
-0.9314417	四 と
-0.9314417	四 全
-0.9314417	四 圭
-0.9314417	四 杏
-1.47551	四 桂
-1.77654	四 歩
-1.77654	四 玉
-1.299419	四 角
-0.9314417	四 金
-1.036177	四 銀
-1.232472	四 飛
-1.77654	四 香
-1.232472	四 馬
-1.232472	四 龍
-1.149181	圭 </s>
-1.149181	圭 上
-0.5471211	圭 右
-1.149181	圭 寄
-0.5471211	圭 左
-1.149181	圭 引
-1.149181	圭 打
-1.149181	圭 直
-0.03186542	寄 </s>
-1.463229	寄 不
-1.463229	寄 成
-0.5158025	左 </s>
-0.6918938	左 上
-1.131226	左 不
-0.8582252	左 寄
-0.6918938	左 引
-1.131226	左 成
-0.1155153	引 </s>
-0.9350592	引 不
-0.9350592	引 成
-0.0001546357	成 </s>
-0.000382807	打 </s>
-1.149181	杏 </s>
-1.149181	杏 上
-0.5471211	杏 右
-1.149181	杏 寄
-0.5471211	杏 左
-1.149181	杏 引
-1.149181	杏 打
-1.149181	杏 直
-0.9070928	桂 </s>
-1.083184	桂 不
-0.539116	桂 右
-0.539116	桂 左
-1.083184	桂 成
-0.9070928	桂 打
-0.5292655	歩 </s>
-0.7053568	歩 不
-0.7053568	歩 成
-0.5292655	歩 打
-0.3063588	玉 </s>
-0.3063588	玉 打
-0.08933806	直 </s>
-1.043581	直 不
-1.043581	直 成
-1.106035	角 </s>
-0.7380587	角 上
-1.282127	角 不
-0.7380587	角 右
-0.7380587	角 左
-0.7380587	角 引
-1.282127	角 成
-1.106035	角 打
-1.149181	金 </s>
-1.149181	金 上
-0.5471211	金 右
-1.149181	金 寄
-0.5471211	金 左
-1.149181	金 引
-1.149181	金 打
-1.149181	金 直
-1.38818	銀 </s>
-1.020203	銀 上
-1.564271	銀 不
-0.5430821	銀 右
-0.5430821	銀 左
-1.020203	銀 引
-1.564271	銀 成
-1.38818	銀 打
-1.020203	銀 直
-1.179296	飛 </s>
-0.8113196	飛 上
-1.355388	飛 不
-0.8113196	飛 右
-0.8113196	飛 寄
-0.8113196	飛 左
-0.8113196	飛 引
-1.355388	飛 成
-1.179296	飛 打
-0.5292655	香 </s>
-0.7053568	香 不
-0.7053568	香 成
-0.5292655	香 打
-0.8504269	馬 </s>
-0.8504269	馬 上
-0.8504269	馬 右
-0.8504269	馬 寄
-0.8504269	馬 左
-0.8504269	馬 引
-0.8504269	馬 打
-0.8504269	龍 </s>
-0.8504269	龍 上
-0.8504269	龍 右
-0.8504269	龍 寄
-0.8504269	龍 左
-0.8504269	龍 引
-0.8504269	龍 打

\end\
